<?xml version="1.0"?>
<opencv_storage>
<stage7>
  <maxWeakCount>19</maxWeakCount>
  <stageThreshold>-1.1016736030578613e+00</stageThreshold>
  <weakClassifiers>
    <_>
      <internalNodes>
        0 -1 38399 3.0806910246610641e-02</internalNodes>
      <leafValues>
        -4.6035803854465485e-02 7.4651813507080078e-01</leafValues></_>
    <_>
      <internalNodes>
        0 -1 125476 -2.7090474031865597e-03</internalNodes>
      <leafValues>
        3.3269110321998596e-01 -5.4486036300659180e-01</leafValues></_>
    <_>
      <internalNodes>
        0 -1 146494 -1.8515244126319885e-02</internalNodes>
      <leafValues>
        5.4609692096710205e-01 -2.6648217439651489e-01</leafValues></_>
    <_>
      <internalNodes>
        0 -1 114309 -5.6408823002129793e-04</internalNodes>
      <leafValues>
        3.6457589268684387e-01 -3.9193099737167358e-01</leafValues></_>
    <_>
      <internalNodes>
        0 -1 96786 3.0041835270822048e-04</internalNodes>
      <leafValues>
        2.0935302972793579e-01 -6.5438622236251831e-01</leafValues></_>
    <_>
      <internalNodes>
        0 -1 104479 8.6795113747939467e-04</internalNodes>
      <leafValues>
        -8.9911252260208130e-01 1.4197960495948792e-01</leafValues></_>
    <_>
      <internalNodes>
        0 -1 117891 3.4939334727823734e-03</internalNodes>
      <leafValues>
        1.9117160141468048e-01 -6.4676028490066528e-01</leafValues></_>
    <_>
      <internalNodes>
        0 -1 146412 -8.4802473429590464e-04</internalNodes>
      <leafValues>
        -8.2192730903625488e-01 1.1711189895868301e-01</leafValues></_>
    <_>
      <internalNodes>
        0 -1 96048 -6.0804155655205250e-03</internalNodes>
      <leafValues>
        -6.4859354496002197e-01 1.5077784657478333e-01</leafValues></_>
    <_>
      <internalNodes>
        0 -1 119069 -1.5122822951525450e-03</internalNodes>
      <leafValues>
        3.3685001730918884e-01 -3.3675670623779297e-01</leafValues></_>
    <_>
      <internalNodes>
        0 -1 10415 9.4716344028711319e-03</internalNodes>
      <leafValues>
        1.1172971129417419e-01 -8.2201540470123291e-01</leafValues></_>
    <_>
      <internalNodes>
        0 -1 22911 5.4556117393076420e-03</internalNodes>
      <leafValues>
        1.4281482994556427e-01 -7.6196581125259399e-01</leafValues></_>
    <_>
      <internalNodes>
        0 -1 111018 -4.5447912998497486e-04</internalNodes>
      <leafValues>
        1.8242084980010986e-01 -5.2023315429687500e-01</leafValues></_>
    <_>
      <internalNodes>
        0 -1 106543 -2.7239806950092316e-03</internalNodes>
      <leafValues>
        2.6617982983589172e-01 -3.7976267933845520e-01</leafValues></_>
    <_>
      <internalNodes>
        0 -1 143412 -1.7052222392521799e-04</internalNodes>
      <leafValues>
        2.1220690011978149e-01 -5.1852405071258545e-01</leafValues></_>
    <_>
      <internalNodes>
        0 -1 68757 5.7459487579762936e-03</internalNodes>
      <leafValues>
        9.1280244290828705e-02 -8.7881880998611450e-01</leafValues></_>
    <_>
      <internalNodes>
        0 -1 67808 1.4524275902658701e-03</internalNodes>
      <leafValues>
        -5.2656608819961548e-01 1.6595105826854706e-01</leafValues></_>
    <_>
      <internalNodes>
        0 -1 111032 1.1953583452850580e-03</internalNodes>
      <leafValues>
        -5.2361279726028442e-01 1.9186411798000336e-01</leafValues></_>
    <_>
      <internalNodes>
        0 -1 133413 -5.2165123634040356e-04</internalNodes>
      <leafValues>
        3.1934210658073425e-01 -3.8147202134132385e-01</leafValues></_></weakClassifiers></stage7>
</opencv_storage>
