<?xml version="1.0"?>
<opencv_storage>
<stage4>
  <maxWeakCount>16</maxWeakCount>
  <stageThreshold>-1.4106911420822144e+00</stageThreshold>
  <weakClassifiers>
    <_>
      <internalNodes>
        0 -1 126104 -9.6578465308994055e-04</internalNodes>
      <leafValues>
        6.4200913906097412e-01 -5.0123459100723267e-01</leafValues></_>
    <_>
      <internalNodes>
        0 -1 99809 3.1011281535029411e-02</internalNodes>
      <leafValues>
        -4.1695559024810791e-01 6.5394163131713867e-01</leafValues></_>
    <_>
      <internalNodes>
        0 -1 142707 -6.1145814834162593e-04</internalNodes>
      <leafValues>
        3.4343799948692322e-01 -6.4660435914993286e-01</leafValues></_>
    <_>
      <internalNodes>
        0 -1 96543 1.5153081039898098e-04</internalNodes>
      <leafValues>
        -8.2818841934204102e-01 2.2910508513450623e-01</leafValues></_>
    <_>
      <internalNodes>
        0 -1 97897 8.2125276094302535e-04</internalNodes>
      <leafValues>
        -4.8702085018157959e-01 4.1762804985046387e-01</leafValues></_>
    <_>
      <internalNodes>
        0 -1 96214 1.5916961710900068e-03</internalNodes>
      <leafValues>
        -9.1711473464965820e-01 1.7980121076107025e-01</leafValues></_>
    <_>
      <internalNodes>
        0 -1 125427 -1.2389754410833120e-03</internalNodes>
      <leafValues>
        3.0692535638809204e-01 -5.5264365673065186e-01</leafValues></_>
    <_>
      <internalNodes>
        0 -1 113848 -4.9430154263973236e-02</internalNodes>
      <leafValues>
        -5.5047792196273804e-01 3.3509963750839233e-01</leafValues></_>
    <_>
      <internalNodes>
        0 -1 140554 -3.8770109415054321e-02</internalNodes>
      <leafValues>
        6.6942697763442993e-01 -3.0047240853309631e-01</leafValues></_>
    <_>
      <internalNodes>
        0 -1 9243 -6.4152055419981480e-03</internalNodes>
      <leafValues>
        -7.0193892717361450e-01 2.0970670878887177e-01</leafValues></_>
    <_>
      <internalNodes>
        0 -1 57943 -9.7201075404882431e-03</internalNodes>
      <leafValues>
        -7.2097164392471313e-01 2.5114822387695313e-01</leafValues></_>
    <_>
      <internalNodes>
        0 -1 65674 -3.0852393247187138e-03</internalNodes>
      <leafValues>
        2.8946736454963684e-01 -4.6837127208709717e-01</leafValues></_>
    <_>
      <internalNodes>
        0 -1 138619 -3.4286014852114022e-05</internalNodes>
      <leafValues>
        2.6350912451744080e-01 -5.4279899597167969e-01</leafValues></_>
    <_>
      <internalNodes>
        0 -1 132369 -2.2938274196349084e-04</internalNodes>
      <leafValues>
        -4.8432797193527222e-01 3.0947151780128479e-01</leafValues></_>
    <_>
      <internalNodes>
        0 -1 79239 8.9180204668082297e-05</internalNodes>
      <leafValues>
        1.8489149212837219e-01 -7.9639613628387451e-01</leafValues></_>
    <_>
      <internalNodes>
        0 -1 120388 4.2561063310131431e-04</internalNodes>
      <leafValues>
        -3.1117010116577148e-01 5.0590872764587402e-01</leafValues></_></weakClassifiers></stage4>
</opencv_storage>
