<?xml version="1.0"?>
<opencv_storage>
<stage3>
  <maxWeakCount>9</maxWeakCount>
  <stageThreshold>-1.2654916048049927e+00</stageThreshold>
  <weakClassifiers>
    <_>
      <internalNodes>
        0 -1 157227 -1.1276998557150364e-02</internalNodes>
      <leafValues>
        -4.9888142943382263e-01 6.8660968542098999e-01</leafValues></_>
    <_>
      <internalNodes>
        0 -1 239553 6.8269399926066399e-03</internalNodes>
      <leafValues>
        -5.4709041118621826e-01 6.3378494977951050e-01</leafValues></_>
    <_>
      <internalNodes>
        0 -1 145246 2.6634554378688335e-03</internalNodes>
      <leafValues>
        -4.2187035083770752e-01 6.4338725805282593e-01</leafValues></_>
    <_>
      <internalNodes>
        0 -1 241545 1.9121256191283464e-03</internalNodes>
      <leafValues>
        -7.7217543125152588e-01 3.4873443841934204e-01</leafValues></_>
    <_>
      <internalNodes>
        0 -1 32502 -2.9841595888137817e-01</internalNodes>
      <leafValues>
        -3.7090212106704712e-01 8.8515067100524902e-01</leafValues></_>
    <_>
      <internalNodes>
        0 -1 231354 2.1101085003465414e-03</internalNodes>
      <leafValues>
        3.5573866963386536e-01 -7.6016229391098022e-01</leafValues></_>
    <_>
      <internalNodes>
        0 -1 185206 7.8310194658115506e-04</internalNodes>
      <leafValues>
        -9.3810021877288818e-01 1.8133670091629028e-01</leafValues></_>
    <_>
      <internalNodes>
        0 -1 188849 -1.4525191858410835e-02</internalNodes>
      <leafValues>
        -9.9301040172576904e-01 1.2915030121803284e-01</leafValues></_>
    <_>
      <internalNodes>
        0 -1 106719 -5.5601019412279129e-03</internalNodes>
      <leafValues>
        4.0083271265029907e-01 -5.1129752397537231e-01</leafValues></_></weakClassifiers></stage3>
</opencv_storage>
