<?xml version="1.0"?>
<opencv_storage>
<stage1>
  <maxWeakCount>6</maxWeakCount>
  <stageThreshold>-7.0689755678176880e-01</stageThreshold>
  <weakClassifiers>
    <_>
      <internalNodes>
        0 -1 185158 -1.1487359181046486e-02</internalNodes>
      <leafValues>
        -8.8666665554046631e-01 6.3833332061767578e-01</leafValues></_>
    <_>
      <internalNodes>
        0 -1 241638 1.8647236283868551e-03</internalNodes>
      <leafValues>
        -8.1190651655197144e-01 5.2620047330856323e-01</leafValues></_>
    <_>
      <internalNodes>
        0 -1 138635 -4.9445619806647301e-03</internalNodes>
      <leafValues>
        7.1757858991622925e-01 -5.9478670358657837e-01</leafValues></_>
    <_>
      <internalNodes>
        0 -1 171421 2.8852443210780621e-03</internalNodes>
      <leafValues>
        -8.6288058757781982e-01 3.9536803960800171e-01</leafValues></_>
    <_>
      <internalNodes>
        0 -1 225408 1.0509385727345943e-02</internalNodes>
      <leafValues>
        -5.5721950531005859e-01 6.6641402244567871e-01</leafValues></_>
    <_>
      <internalNodes>
        0 -1 222604 -4.0265286224894226e-04</internalNodes>
      <leafValues>
        4.4482189416885376e-01 -7.6274478435516357e-01</leafValues></_></weakClassifiers></stage1>
</opencv_storage>
