<?xml version="1.0"?>
<opencv_storage>
<stage9>
  <maxWeakCount>55</maxWeakCount>
  <stageThreshold>-1.1236664056777954e+00</stageThreshold>
  <weakClassifiers>
    <_>
      <internalNodes>
        0 -1 196831 2.6690745726227760e-03</internalNodes>
      <leafValues>
        -2.8263103961944580e-01 5.0326055288314819e-01</leafValues></_>
    <_>
      <internalNodes>
        0 -1 190965 1.2543963268399239e-02</internalNodes>
      <leafValues>
        -2.3550097644329071e-01 4.3682098388671875e-01</leafValues></_>
    <_>
      <internalNodes>
        0 -1 126133 5.5264495313167572e-04</internalNodes>
      <leafValues>
        -4.2999601364135742e-01 2.4835582077503204e-01</leafValues></_>
    <_>
      <internalNodes>
        0 -1 160177 1.0185423307120800e-03</internalNodes>
      <leafValues>
        -3.6604112386703491e-01 2.5243362784385681e-01</leafValues></_>
    <_>
      <internalNodes>
        0 -1 267321 -5.4071024351287633e-05</internalNodes>
      <leafValues>
        1.6674022376537323e-01 -4.9605512619018555e-01</leafValues></_>
    <_>
      <internalNodes>
        0 -1 248398 -4.5864440500736237e-02</internalNodes>
      <leafValues>
        3.4816017746925354e-01 -2.1834476292133331e-01</leafValues></_>
    <_>
      <internalNodes>
        0 -1 258792 -3.7236404605209827e-03</internalNodes>
      <leafValues>
        -4.2606061697006226e-01 1.6025862097740173e-01</leafValues></_>
    <_>
      <internalNodes>
        0 -1 184195 -4.3390616774559021e-03</internalNodes>
      <leafValues>
        -4.9611592292785645e-01 1.0744760185480118e-01</leafValues></_>
    <_>
      <internalNodes>
        0 -1 185206 8.3866220666095614e-04</internalNodes>
      <leafValues>
        -6.6518145799636841e-01 9.3842104077339172e-02</leafValues></_>
    <_>
      <internalNodes>
        0 -1 211863 7.3020986746996641e-04</internalNodes>
      <leafValues>
        -1.9485118985176086e-01 3.4937465190887451e-01</leafValues></_>
    <_>
      <internalNodes>
        0 -1 242501 6.6736270673573017e-04</internalNodes>
      <leafValues>
        1.3396954536437988e-01 -5.5298167467117310e-01</leafValues></_>
    <_>
      <internalNodes>
        0 -1 232276 1.7344010993838310e-03</internalNodes>
      <leafValues>
        8.1500351428985596e-02 -6.2923878431320190e-01</leafValues></_>
    <_>
      <internalNodes>
        0 -1 218807 -7.2908779839053750e-04</internalNodes>
      <leafValues>
        1.3329142332077026e-01 -4.2582201957702637e-01</leafValues></_>
    <_>
      <internalNodes>
        0 -1 187665 -7.3636225424706936e-03</internalNodes>
      <leafValues>
        -7.7219539880752563e-01 6.9093562662601471e-02</leafValues></_>
    <_>
      <internalNodes>
        0 -1 222971 1.5905990730971098e-03</internalNodes>
      <leafValues>
        7.2046674787998199e-02 -6.8286091089248657e-01</leafValues></_>
    <_>
      <internalNodes>
        0 -1 233482 -3.9262650534510612e-03</internalNodes>
      <leafValues>
        2.2337140142917633e-01 -2.7688938379287720e-01</leafValues></_>
    <_>
      <internalNodes>
        0 -1 231448 2.2034216090105474e-04</internalNodes>
      <leafValues>
        1.6451312601566315e-01 -3.4316539764404297e-01</leafValues></_>
    <_>
      <internalNodes>
        0 -1 139217 -2.1149520762264729e-03</internalNodes>
      <leafValues>
        -4.3115290999412537e-01 1.3260303437709808e-01</leafValues></_>
    <_>
      <internalNodes>
        0 -1 157083 3.7678715307265520e-04</internalNodes>
      <leafValues>
        1.0726439952850342e-01 -4.4223481416702271e-01</leafValues></_>
    <_>
      <internalNodes>
        0 -1 142641 -1.0766766499727964e-03</internalNodes>
      <leafValues>
        -8.3483707904815674e-01 5.9907417744398117e-02</leafValues></_>
    <_>
      <internalNodes>
        0 -1 201109 -1.1519899126142263e-03</internalNodes>
      <leafValues>
        2.1257048845291138e-01 -2.3883011937141418e-01</leafValues></_>
    <_>
      <internalNodes>
        0 -1 257824 -3.1277528032660484e-03</internalNodes>
      <leafValues>
        -6.8493038415908813e-01 6.9440148770809174e-02</leafValues></_>
    <_>
      <internalNodes>
        0 -1 211779 4.4928565621376038e-03</internalNodes>
      <leafValues>
        7.5304783880710602e-02 -5.5759745836257935e-01</leafValues></_>
    <_>
      <internalNodes>
        0 -1 199445 -1.0427988599985838e-03</internalNodes>
      <leafValues>
        3.7534466385841370e-01 -1.3492695987224579e-01</leafValues></_>
    <_>
      <internalNodes>
        0 -1 258173 1.2647053226828575e-03</internalNodes>
      <leafValues>
        8.9915409684181213e-02 -5.2343785762786865e-01</leafValues></_>
    <_>
      <internalNodes>
        0 -1 242731 1.8439820269122720e-04</internalNodes>
      <leafValues>
        -2.5817045569419861e-01 1.9556707143783569e-01</leafValues></_>
    <_>
      <internalNodes>
        0 -1 252627 -2.2640661336481571e-03</internalNodes>
      <leafValues>
        -4.9600136280059814e-01 9.4722092151641846e-02</leafValues></_>
    <_>
      <internalNodes>
        0 -1 220312 1.5086493222042918e-03</internalNodes>
      <leafValues>
        -1.4996971189975739e-01 3.1598660349845886e-01</leafValues></_>
    <_>
      <internalNodes>
        0 -1 216946 3.7644957192242146e-03</internalNodes>
      <leafValues>
        6.9137565791606903e-02 -7.6309877634048462e-01</leafValues></_>
    <_>
      <internalNodes>
        0 -1 252258 -4.5814965851604939e-03</internalNodes>
      <leafValues>
        -7.0029467344284058e-01 5.7715427130460739e-02</leafValues></_>
    <_>
      <internalNodes>
        0 -1 266040 2.5617209030315280e-04</internalNodes>
      <leafValues>
        -2.8296262025833130e-01 1.6926281154155731e-01</leafValues></_>
    <_>
      <internalNodes>
        0 -1 260756 -4.0155868045985699e-03</internalNodes>
      <leafValues>
        -6.3759368658065796e-01 7.9366736114025116e-02</leafValues></_>
    <_>
      <internalNodes>
        0 -1 226887 -8.0959908664226532e-03</internalNodes>
      <leafValues>
        1.7915838956832886e-01 -2.5310266017913818e-01</leafValues></_>
    <_>
      <internalNodes>
        0 -1 176470 -1.0020829737186432e-02</internalNodes>
      <leafValues>
        -6.0059654712677002e-01 7.3568925261497498e-02</leafValues></_>
    <_>
      <internalNodes>
        0 -1 223233 4.0120992343872786e-04</internalNodes>
      <leafValues>
        -1.1944611370563507e-01 3.9897122979164124e-01</leafValues></_>
    <_>
      <internalNodes>
        0 -1 200177 -2.2580893710255623e-03</internalNodes>
      <leafValues>
        2.9844582080841064e-01 -1.8772010505199432e-01</leafValues></_>
    <_>
      <internalNodes>
        0 -1 173179 2.4188091629184783e-04</internalNodes>
      <leafValues>
        8.0500341951847076e-02 -6.4415735006332397e-01</leafValues></_>
    <_>
      <internalNodes>
        0 -1 9467 4.9307070672512054e-02</internalNodes>
      <leafValues>
        -1.1295846104621887e-01 4.5966076850891113e-01</leafValues></_>
    <_>
      <internalNodes>
        0 -1 75012 -2.4478645063936710e-03</internalNodes>
      <leafValues>
        -3.5636478662490845e-01 1.3375015556812286e-01</leafValues></_>
    <_>
      <internalNodes>
        0 -1 34389 -1.4452745206654072e-02</internalNodes>
      <leafValues>
        -5.6229692697525024e-01 7.5005702674388885e-02</leafValues></_>
    <_>
      <internalNodes>
        0 -1 30076 1.3469760306179523e-02</internalNodes>
      <leafValues>
        -1.4158214628696442e-01 3.3053597807884216e-01</leafValues></_>
    <_>
      <internalNodes>
        0 -1 8754 1.5291938558220863e-02</internalNodes>
      <leafValues>
        7.5906887650489807e-02 -6.1914157867431641e-01</leafValues></_>
    <_>
      <internalNodes>
        0 -1 223696 8.2299648784101009e-04</internalNodes>
      <leafValues>
        8.1624299287796021e-02 -4.9288147687911987e-01</leafValues></_>
    <_>
      <internalNodes>
        0 -1 252684 -3.1611230224370956e-04</internalNodes>
      <leafValues>
        2.6038682460784912e-01 -1.6852973401546478e-01</leafValues></_>
    <_>
      <internalNodes>
        0 -1 279803 -1.4333869330585003e-03</internalNodes>
      <leafValues>
        -5.4427021741867065e-01 8.7026566267013550e-02</leafValues></_>
    <_>
      <internalNodes>
        0 -1 233033 -7.7959639020264149e-04</internalNodes>
      <leafValues>
        1.9650518894195557e-01 -2.6214510202407837e-01</leafValues></_>
    <_>
      <internalNodes>
        0 -1 207785 1.9614724442362785e-04</internalNodes>
      <leafValues>
        -2.8665110468864441e-01 1.5043033659458160e-01</leafValues></_>
    <_>
      <internalNodes>
        0 -1 250694 -3.2284084707498550e-02</internalNodes>
      <leafValues>
        -7.1602332592010498e-01 6.0530159622430801e-02</leafValues></_>
    <_>
      <internalNodes>
        0 -1 183854 -6.5912865102291107e-03</internalNodes>
      <leafValues>
        -6.3462764024734497e-01 5.6083947420120239e-02</leafValues></_>
    <_>
      <internalNodes>
        0 -1 220100 9.0995681603089906e-06</internalNodes>
      <leafValues>
        -4.1208994388580322e-01 1.1079645156860352e-01</leafValues></_>
    <_>
      <internalNodes>
        0 -1 288469 9.6889901906251907e-03</internalNodes>
      <leafValues>
        -1.0930922627449036e-01 4.4655016064643860e-01</leafValues></_>
    <_>
      <internalNodes>
        0 -1 184516 4.0891740354709327e-04</internalNodes>
      <leafValues>
        -1.2409458309412003e-01 3.4959870576858521e-01</leafValues></_>
    <_>
      <internalNodes>
        0 -1 236075 -6.4158784225583076e-03</internalNodes>
      <leafValues>
        -8.0548888444900513e-01 5.5406671017408371e-02</leafValues></_>
    <_>
      <internalNodes>
        0 -1 229019 -4.5779679203405976e-04</internalNodes>
      <leafValues>
        9.5919445157051086e-02 -4.5255863666534424e-01</leafValues></_>
    <_>
      <internalNodes>
        0 -1 220777 -1.1669668601825833e-03</internalNodes>
      <leafValues>
        3.1011003255844116e-01 -1.4548382163047791e-01</leafValues></_></weakClassifiers></stage9>
</opencv_storage>
