<?xml version="1.0"?>
<opencv_storage>
<stage1>
  <maxWeakCount>8</maxWeakCount>
  <stageThreshold>-1.0837513208389282e+00</stageThreshold>
  <weakClassifiers>
    <_>
      <internalNodes>
        0 -1 171421 2.8826701454818249e-03</internalNodes>
      <leafValues>
        -8.1003582477569580e-01 7.1040189266204834e-01</leafValues></_>
    <_>
      <internalNodes>
        0 -1 200186 -7.4638299643993378e-02</internalNodes>
      <leafValues>
        -7.0837426185607910e-01 6.3178646564483643e-01</leafValues></_>
    <_>
      <internalNodes>
        0 -1 258839 1.1101345298811793e-03</internalNodes>
      <leafValues>
        -7.3137378692626953e-01 5.3052306175231934e-01</leafValues></_>
    <_>
      <internalNodes>
        0 -1 230047 -2.1223623771220446e-03</internalNodes>
      <leafValues>
        4.2451718449592590e-01 -7.3431622982025146e-01</leafValues></_>
    <_>
      <internalNodes>
        0 -1 239553 4.5435270294547081e-03</internalNodes>
      <leafValues>
        -6.9971859455108643e-01 4.3172046542167664e-01</leafValues></_>
    <_>
      <internalNodes>
        0 -1 97115 -1.6295358538627625e-02</internalNodes>
      <leafValues>
        -3.8932433724403381e-01 7.0109707117080688e-01</leafValues></_>
    <_>
      <internalNodes>
        0 -1 241234 3.6997853312641382e-03</internalNodes>
      <leafValues>
        -8.5375344753265381e-01 3.0161005258560181e-01</leafValues></_>
    <_>
      <internalNodes>
        0 -1 219824 2.7441384736448526e-03</internalNodes>
      <leafValues>
        2.5372964143753052e-01 -7.9252487421035767e-01</leafValues></_></weakClassifiers></stage1>
</opencv_storage>
