<?xml version="1.0"?>
<opencv_storage>
<stage4>
  <maxWeakCount>12</maxWeakCount>
  <stageThreshold>-5.6565666198730469e-01</stageThreshold>
  <weakClassifiers>
    <_>
      <internalNodes>
        0 -1 171415 1.0116673074662685e-03</internalNodes>
      <leafValues>
        -5.2127659320831299e-01 6.1921709775924683e-01</leafValues></_>
    <_>
      <internalNodes>
        0 -1 61212 4.1682235896587372e-02</internalNodes>
      <leafValues>
        -3.2016769051551819e-01 7.6913481950759888e-01</leafValues></_>
    <_>
      <internalNodes>
        0 -1 212858 -4.5363544486463070e-03</internalNodes>
      <leafValues>
        4.9325701594352722e-01 -4.1770938038825989e-01</leafValues></_>
    <_>
      <internalNodes>
        0 -1 263655 -1.7806394025683403e-02</internalNodes>
      <leafValues>
        5.9843444824218750e-01 -3.3591330051422119e-01</leafValues></_>
    <_>
      <internalNodes>
        0 -1 127046 1.3047893298789859e-04</internalNodes>
      <leafValues>
        -8.9473670721054077e-01 2.4506293237209320e-01</leafValues></_>
    <_>
      <internalNodes>
        0 -1 240263 -6.2631897162646055e-04</internalNodes>
      <leafValues>
        3.3032876253128052e-01 -6.1734914779663086e-01</leafValues></_>
    <_>
      <internalNodes>
        0 -1 157477 -1.1751519050449133e-03</internalNodes>
      <leafValues>
        2.8897064924240112e-01 -6.9237816333770752e-01</leafValues></_>
    <_>
      <internalNodes>
        0 -1 222034 -1.5093928959686309e-04</internalNodes>
      <leafValues>
        2.7145409584045410e-01 -6.6315156221389771e-01</leafValues></_>
    <_>
      <internalNodes>
        0 -1 247295 6.2306839972734451e-03</internalNodes>
      <leafValues>
        -4.3656510114669800e-01 4.3843021988868713e-01</leafValues></_>
    <_>
      <internalNodes>
        0 -1 229645 -1.1852139141410589e-03</internalNodes>
      <leafValues>
        -7.8811836242675781e-01 2.5269246101379395e-01</leafValues></_>
    <_>
      <internalNodes>
        0 -1 102046 2.2809524089097977e-02</internalNodes>
      <leafValues>
        -2.5601559877395630e-01 7.8695529699325562e-01</leafValues></_>
    <_>
      <internalNodes>
        0 -1 210723 -1.2453915551304817e-02</internalNodes>
      <leafValues>
        -4.7623449563980103e-01 4.3983563780784607e-01</leafValues></_></weakClassifiers></stage4>
</opencv_storage>
