<?xml version="1.0"?>
<opencv_storage>
<stage8>
  <maxWeakCount>61</maxWeakCount>
  <stageThreshold>-1.2599347829818726e+00</stageThreshold>
  <weakClassifiers>
    <_>
      <internalNodes>
        0 -1 119382 -2.7712699957191944e-03</internalNodes>
      <leafValues>
        5.4812365770339966e-01 -1.6719529032707214e-01</leafValues></_>
    <_>
      <internalNodes>
        0 -1 504 6.6567838191986084e-02</internalNodes>
      <leafValues>
        -2.3543642461299896e-01 5.1362168788909912e-01</leafValues></_>
    <_>
      <internalNodes>
        0 -1 132364 -4.3381634168326855e-04</internalNodes>
      <leafValues>
        -4.0956294536590576e-01 2.5123381614685059e-01</leafValues></_>
    <_>
      <internalNodes>
        0 -1 97897 7.9403357813134789e-04</internalNodes>
      <leafValues>
        -3.2934781908988953e-01 2.5320571660995483e-01</leafValues></_>
    <_>
      <internalNodes>
        0 -1 142441 -4.1673524538055062e-04</internalNodes>
      <leafValues>
        2.2542470693588257e-01 -3.3829289674758911e-01</leafValues></_>
    <_>
      <internalNodes>
        0 -1 120318 -1.6642297850921750e-03</internalNodes>
      <leafValues>
        1.6603215038776398e-01 -3.7020954489707947e-01</leafValues></_>
    <_>
      <internalNodes>
        0 -1 37543 -2.0859710872173309e-02</internalNodes>
      <leafValues>
        -1.4468228816986084e-01 4.6968680620193481e-01</leafValues></_>
    <_>
      <internalNodes>
        0 -1 97709 -3.3935433020815253e-04</internalNodes>
      <leafValues>
        1.8468396365642548e-01 -3.2642430067062378e-01</leafValues></_>
    <_>
      <internalNodes>
        0 -1 105445 7.5270179659128189e-03</internalNodes>
      <leafValues>
        1.2168335169553757e-01 -6.0132050514221191e-01</leafValues></_>
    <_>
      <internalNodes>
        0 -1 131004 2.7942692395299673e-03</internalNodes>
      <leafValues>
        -3.1172332167625427e-01 1.7583687603473663e-01</leafValues></_>
    <_>
      <internalNodes>
        0 -1 87954 -3.8893229793757200e-03</internalNodes>
      <leafValues>
        -5.1194214820861816e-01 9.8607987165451050e-02</leafValues></_>
    <_>
      <internalNodes>
        0 -1 103614 6.1052897945046425e-04</internalNodes>
      <leafValues>
        -6.5276300907135010e-01 7.9957917332649231e-02</leafValues></_>
    <_>
      <internalNodes>
        0 -1 120752 -1.4373570680618286e-02</internalNodes>
      <leafValues>
        -5.7544249296188354e-01 8.0421209335327148e-02</leafValues></_>
    <_>
      <internalNodes>
        0 -1 110596 3.0391651671379805e-04</internalNodes>
      <leafValues>
        -3.2884275913238525e-01 1.5291404724121094e-01</leafValues></_>
    <_>
      <internalNodes>
        0 -1 151288 -1.9275395898148417e-03</internalNodes>
      <leafValues>
        -6.0401719808578491e-01 8.1143900752067566e-02</leafValues></_>
    <_>
      <internalNodes>
        0 -1 65771 -3.2994500361382961e-03</internalNodes>
      <leafValues>
        -5.6751132011413574e-01 8.4264956414699554e-02</leafValues></_>
    <_>
      <internalNodes>
        0 -1 24379 -4.4676639139652252e-02</internalNodes>
      <leafValues>
        -6.8917667865753174e-01 6.9570876657962799e-02</leafValues></_>
    <_>
      <internalNodes>
        0 -1 87526 6.5527698025107384e-03</internalNodes>
      <leafValues>
        -5.0723189115524292e-01 9.8625503480434418e-02</leafValues></_>
    <_>
      <internalNodes>
        0 -1 86771 5.6698056869208813e-04</internalNodes>
      <leafValues>
        1.0467816144227982e-01 -4.0352946519851685e-01</leafValues></_>
    <_>
      <internalNodes>
        0 -1 68244 -1.9974638707935810e-03</internalNodes>
      <leafValues>
        -5.0128298997879028e-01 8.7451748549938202e-02</leafValues></_>
    <_>
      <internalNodes>
        0 -1 119638 7.6266092946752906e-05</internalNodes>
      <leafValues>
        -3.0652621388435364e-01 1.5310770273208618e-01</leafValues></_>
    <_>
      <internalNodes>
        0 -1 94234 3.4283332061022520e-03</internalNodes>
      <leafValues>
        6.2167253345251083e-02 -6.4337831735610962e-01</leafValues></_>
    <_>
      <internalNodes>
        0 -1 139090 -3.1415405101142824e-04</internalNodes>
      <leafValues>
        1.7500269412994385e-01 -2.2501164674758911e-01</leafValues></_>
    <_>
      <internalNodes>
        0 -1 109638 -4.4948764843866229e-04</internalNodes>
      <leafValues>
        -4.0943220257759094e-01 9.6022829413414001e-02</leafValues></_>
    <_>
      <internalNodes>
        0 -1 113593 -4.9692569300532341e-03</internalNodes>
      <leafValues>
        -4.7820928692817688e-01 7.9728662967681885e-02</leafValues></_>
    <_>
      <internalNodes>
        0 -1 113420 -1.3587391003966331e-03</internalNodes>
      <leafValues>
        2.3688739538192749e-01 -1.5565997362136841e-01</leafValues></_>
    <_>
      <internalNodes>
        0 -1 97202 -1.4857387213851325e-05</internalNodes>
      <leafValues>
        1.0347203910350800e-01 -4.2620837688446045e-01</leafValues></_>
    <_>
      <internalNodes>
        0 -1 124274 -5.2959285676479340e-04</internalNodes>
      <leafValues>
        1.2453766167163849e-01 -3.1261029839515686e-01</leafValues></_>
    <_>
      <internalNodes>
        0 -1 123850 -4.3919109739363194e-03</internalNodes>
      <leafValues>
        -5.9494489431381226e-01 7.3815710842609406e-02</leafValues></_>
    <_>
      <internalNodes>
        0 -1 115347 -1.7952116206288338e-02</internalNodes>
      <leafValues>
        2.2664411365985870e-01 -1.7587767541408539e-01</leafValues></_>
    <_>
      <internalNodes>
        0 -1 96180 8.1942565739154816e-03</internalNodes>
      <leafValues>
        7.2984434664249420e-02 -5.8500993251800537e-01</leafValues></_>
    <_>
      <internalNodes>
        0 -1 5212 -2.8278872370719910e-02</internalNodes>
      <leafValues>
        3.2915547490119934e-01 -1.3427476584911346e-01</leafValues></_>
    <_>
      <internalNodes>
        0 -1 38124 1.4990618452429771e-02</internalNodes>
      <leafValues>
        -1.4623048901557922e-01 2.7706655859947205e-01</leafValues></_>
    <_>
      <internalNodes>
        0 -1 9273 -1.2316558510065079e-02</internalNodes>
      <leafValues>
        -6.8476998805999756e-01 5.8709971606731415e-02</leafValues></_>
    <_>
      <internalNodes>
        0 -1 126189 9.8701578099280596e-04</internalNodes>
      <leafValues>
        -6.5511536598205566e-01 4.7333307564258575e-02</leafValues></_>
    <_>
      <internalNodes>
        0 -1 133229 1.1405596509575844e-02</internalNodes>
      <leafValues>
        5.9778831899166107e-02 -5.6269198656082153e-01</leafValues></_>
    <_>
      <internalNodes>
        0 -1 113843 1.6491349088028073e-03</internalNodes>
      <leafValues>
        -1.6096903383731842e-01 2.6768106222152710e-01</leafValues></_>
    <_>
      <internalNodes>
        0 -1 85946 1.0206382721662521e-02</internalNodes>
      <leafValues>
        1.2469483911991119e-01 -3.3467149734497070e-01</leafValues></_>
    <_>
      <internalNodes>
        0 -1 133267 5.5008206982165575e-04</internalNodes>
      <leafValues>
        -1.3110433518886566e-01 3.1704154610633850e-01</leafValues></_>
    <_>
      <internalNodes>
        0 -1 151088 4.1400548070669174e-03</internalNodes>
      <leafValues>
        7.2323381900787354e-02 -5.6521975994110107e-01</leafValues></_>
    <_>
      <internalNodes>
        0 -1 88830 -1.8302071839570999e-03</internalNodes>
      <leafValues>
        -4.8465445637702942e-01 7.0168994367122650e-02</leafValues></_>
    <_>
      <internalNodes>
        0 -1 137857 -1.0302776936441660e-03</internalNodes>
      <leafValues>
        -4.5192193984985352e-01 8.3339437842369080e-02</leafValues></_>
    <_>
      <internalNodes>
        0 -1 133039 -9.0391580015420914e-03</internalNodes>
      <leafValues>
        2.2617991268634796e-01 -1.6048352420330048e-01</leafValues></_>
    <_>
      <internalNodes>
        0 -1 104438 -1.6859159804880619e-03</internalNodes>
      <leafValues>
        -1.1556351929903030e-01 3.4176689386367798e-01</leafValues></_>
    <_>
      <internalNodes>
        0 -1 104576 -9.9131446331739426e-03</internalNodes>
      <leafValues>
        -4.7619801759719849e-01 8.7355554103851318e-02</leafValues></_>
    <_>
      <internalNodes>
        0 -1 86827 1.8962473841384053e-03</internalNodes>
      <leafValues>
        -6.3904219865798950e-01 5.2631154656410217e-02</leafValues></_>
    <_>
      <internalNodes>
        0 -1 79935 2.8950388077646494e-03</internalNodes>
      <leafValues>
        4.7040440142154694e-02 -6.7079591751098633e-01</leafValues></_>
    <_>
      <internalNodes>
        0 -1 113760 4.9045926425606012e-04</internalNodes>
      <leafValues>
        -2.3282244801521301e-01 1.5340653061866760e-01</leafValues></_>
    <_>
      <internalNodes>
        0 -1 120403 1.3930212706327438e-02</internalNodes>
      <leafValues>
        6.6398583352565765e-02 -6.2576329708099365e-01</leafValues></_>
    <_>
      <internalNodes>
        0 -1 80418 5.6072972714900970e-02</internalNodes>
      <leafValues>
        -9.2503421008586884e-02 4.0503057837486267e-01</leafValues></_>
    <_>
      <internalNodes>
        0 -1 120590 1.4218819560483098e-03</internalNodes>
      <leafValues>
        -8.1584885716438293e-02 4.1673186421394348e-01</leafValues></_>
    <_>
      <internalNodes>
        0 -1 113213 -1.0810819221660495e-03</internalNodes>
      <leafValues>
        1.4488555490970612e-01 -2.9537418484687805e-01</leafValues></_>
    <_>
      <internalNodes>
        0 -1 125048 5.5317633086815476e-04</internalNodes>
      <leafValues>
        7.3669947683811188e-02 -4.6407699584960938e-01</leafValues></_>
    <_>
      <internalNodes>
        0 -1 104440 -1.8661317881196737e-03</internalNodes>
      <leafValues>
        2.3703993856906891e-01 -1.5348190069198608e-01</leafValues></_>
    <_>
      <internalNodes>
        0 -1 95241 -5.0568336155265570e-04</internalNodes>
      <leafValues>
        2.4483354389667511e-01 -1.5461985766887665e-01</leafValues></_>
    <_>
      <internalNodes>
        0 -1 110597 4.0803849697113037e-03</internalNodes>
      <leafValues>
        6.7407898604869843e-02 -6.6886478662490845e-01</leafValues></_>
    <_>
      <internalNodes>
        0 -1 150056 1.5339437872171402e-02</internalNodes>
      <leafValues>
        4.5768689364194870e-02 -6.6765069961547852e-01</leafValues></_>
    <_>
      <internalNodes>
        0 -1 87420 2.0624762400984764e-03</internalNodes>
      <leafValues>
        5.5464874953031540e-02 -5.6588655710220337e-01</leafValues></_>
    <_>
      <internalNodes>
        0 -1 153588 8.7141562253236771e-03</internalNodes>
      <leafValues>
        -6.9422438740730286e-02 5.1789194345474243e-01</leafValues></_>
    <_>
      <internalNodes>
        0 -1 153450 -2.2593613713979721e-02</internalNodes>
      <leafValues>
        3.1751215457916260e-01 -1.0103426873683929e-01</leafValues></_>
    <_>
      <internalNodes>
        0 -1 114447 7.3927715420722961e-03</internalNodes>
      <leafValues>
        4.4920608401298523e-02 -8.2628947496414185e-01</leafValues></_></weakClassifiers></stage8>
</opencv_storage>
