<?xml version="1.0"?>
<opencv_storage>
<stage3>
  <maxWeakCount>23</maxWeakCount>
  <stageThreshold>-1.7100507020950317e+00</stageThreshold>
  <weakClassifiers>
    <_>
      <internalNodes>
        0 -1 87456 6.7959390580654144e-03</internalNodes>
      <leafValues>
        -6.0330575704574585e-01 6.1386138200759888e-01</leafValues></_>
    <_>
      <internalNodes>
        0 -1 104063 2.2943825460970402e-03</internalNodes>
      <leafValues>
        -6.5478700399398804e-01 3.9653789997100830e-01</leafValues></_>
    <_>
      <internalNodes>
        0 -1 99764 4.7199398279190063e-02</internalNodes>
      <leafValues>
        -3.3473187685012817e-01 6.6818892955780029e-01</leafValues></_>
    <_>
      <internalNodes>
        0 -1 137374 -1.6663171350955963e-02</internalNodes>
      <leafValues>
        -7.4444925785064697e-01 2.3750801384449005e-01</leafValues></_>
    <_>
      <internalNodes>
        0 -1 137708 2.5225630961358547e-03</internalNodes>
      <leafValues>
        -8.1417703628540039e-01 1.7332926392555237e-01</leafValues></_>
    <_>
      <internalNodes>
        0 -1 142395 -3.3118209103122354e-05</internalNodes>
      <leafValues>
        2.5656470656394958e-01 -5.1612776517868042e-01</leafValues></_>
    <_>
      <internalNodes>
        0 -1 96093 1.0636660736054182e-03</internalNodes>
      <leafValues>
        -8.5655689239501953e-01 1.5721422433853149e-01</leafValues></_>
    <_>
      <internalNodes>
        0 -1 121187 -4.4394736178219318e-03</internalNodes>
      <leafValues>
        3.6266183853149414e-01 -3.6101081967353821e-01</leafValues></_>
    <_>
      <internalNodes>
        0 -1 125433 4.3673217296600342e-03</internalNodes>
      <leafValues>
        1.4887514710426331e-01 -7.1222138404846191e-01</leafValues></_>
    <_>
      <internalNodes>
        0 -1 104863 -4.5718852197751403e-04</internalNodes>
      <leafValues>
        -7.6150226593017578e-01 1.3093921542167664e-01</leafValues></_>
    <_>
      <internalNodes>
        0 -1 143383 7.1000854950398207e-04</internalNodes>
      <leafValues>
        1.1750825494527817e-01 -7.6478880643844604e-01</leafValues></_>
    <_>
      <internalNodes>
        0 -1 97491 -4.7127902507781982e-03</internalNodes>
      <leafValues>
        -6.6009891033172607e-01 1.3179889321327209e-01</leafValues></_>
    <_>
      <internalNodes>
        0 -1 104438 -2.8887647204101086e-03</internalNodes>
      <leafValues>
        -2.3403634130954742e-01 5.0956648588180542e-01</leafValues></_>
    <_>
      <internalNodes>
        0 -1 43878 1.4662161469459534e-02</internalNodes>
      <leafValues>
        -2.1772524714469910e-01 5.0979644060134888e-01</leafValues></_>
    <_>
      <internalNodes>
        0 -1 133294 -1.0344436159357429e-03</internalNodes>
      <leafValues>
        2.7428400516510010e-01 -4.1510054469108582e-01</leafValues></_>
    <_>
      <internalNodes>
        0 -1 67934 9.2310609761625528e-04</internalNodes>
      <leafValues>
        -7.3824709653854370e-01 1.4399853348731995e-01</leafValues></_>
    <_>
      <internalNodes>
        0 -1 56969 -1.2152692303061485e-02</internalNodes>
      <leafValues>
        -7.7663373947143555e-01 1.1046986281871796e-01</leafValues></_>
    <_>
      <internalNodes>
        0 -1 125422 -4.1974743362516165e-04</internalNodes>
      <leafValues>
        1.8627811968326569e-01 -4.8932030797004700e-01</leafValues></_>
    <_>
      <internalNodes>
        0 -1 104397 -8.0649722367525101e-03</internalNodes>
      <leafValues>
        -7.8708863258361816e-01 1.1720030009746552e-01</leafValues></_>
    <_>
      <internalNodes>
        0 -1 97131 5.3590192692354321e-04</internalNodes>
      <leafValues>
        1.3653719425201416e-01 -6.5924239158630371e-01</leafValues></_>
    <_>
      <internalNodes>
        0 -1 97897 4.9284892156720161e-04</internalNodes>
      <leafValues>
        -4.0060245990753174e-01 2.7986139059066772e-01</leafValues></_>
    <_>
      <internalNodes>
        0 -1 65048 -6.2685851007699966e-03</internalNodes>
      <leafValues>
        2.9224735498428345e-01 -3.2178652286529541e-01</leafValues></_>
    <_>
      <internalNodes>
        0 -1 69283 -2.3911688476800919e-03</internalNodes>
      <leafValues>
        -7.9249137639999390e-01 1.1636941134929657e-01</leafValues></_></weakClassifiers></stage3>
</opencv_storage>
