<?xml version="1.0"?>
<opencv_storage>
<stage9>
  <maxWeakCount>72</maxWeakCount>
  <stageThreshold>-1.2798902988433838e+00</stageThreshold>
  <weakClassifiers>
    <_>
      <internalNodes>
        0 -1 146846 6.2401872128248215e-04</internalNodes>
      <leafValues>
        -1.3287117704749107e-02 6.4197528362274170e-01</leafValues></_>
    <_>
      <internalNodes>
        0 -1 82000 7.1434140205383301e-02</internalNodes>
      <leafValues>
        -1.5035767853260040e-01 5.1879394054412842e-01</leafValues></_>
    <_>
      <internalNodes>
        0 -1 96131 -7.8375171869993210e-03</internalNodes>
      <leafValues>
        -3.5133793950080872e-01 2.5472316145896912e-01</leafValues></_>
    <_>
      <internalNodes>
        0 -1 133294 -1.8018721602857113e-03</internalNodes>
      <leafValues>
        1.8742591142654419e-01 -3.9935746788978577e-01</leafValues></_>
    <_>
      <internalNodes>
        0 -1 138371 -2.8462172485888004e-04</internalNodes>
      <leafValues>
        1.6820254921913147e-01 -4.2952185869216919e-01</leafValues></_>
    <_>
      <internalNodes>
        0 -1 34514 1.3939813943579793e-03</internalNodes>
      <leafValues>
        -4.4012951850891113e-01 1.4424796402454376e-01</leafValues></_>
    <_>
      <internalNodes>
        0 -1 110607 7.0034113014116883e-04</internalNodes>
      <leafValues>
        -4.7163030505180359e-01 1.2324540317058563e-01</leafValues></_>
    <_>
      <internalNodes>
        0 -1 55646 1.9256452796980739e-03</internalNodes>
      <leafValues>
        -2.6524052023887634e-01 2.3085142672061920e-01</leafValues></_>
    <_>
      <internalNodes>
        0 -1 81450 -2.5397190824151039e-02</internalNodes>
      <leafValues>
        4.3065723776817322e-01 -1.4817701280117035e-01</leafValues></_>
    <_>
      <internalNodes>
        0 -1 132945 2.4316213966812938e-05</internalNodes>
      <leafValues>
        -2.0057781040668488e-01 2.6799893379211426e-01</leafValues></_>
    <_>
      <internalNodes>
        0 -1 96786 3.0093762325122952e-04</internalNodes>
      <leafValues>
        1.2836243212223053e-01 -4.2518767714500427e-01</leafValues></_>
    <_>
      <internalNodes>
        0 -1 96786 -1.1407363926991820e-03</internalNodes>
      <leafValues>
        -7.0719426870346069e-01 8.5482388734817505e-02</leafValues></_>
    <_>
      <internalNodes>
        0 -1 136193 8.3441119641065598e-03</internalNodes>
      <leafValues>
        5.4498162120580673e-02 -6.5223455429077148e-01</leafValues></_>
    <_>
      <internalNodes>
        0 -1 98112 2.5271154008805752e-03</internalNodes>
      <leafValues>
        -1.7642925679683685e-01 2.4517510831356049e-01</leafValues></_>
    <_>
      <internalNodes>
        0 -1 137862 2.5200772142852657e-05</internalNodes>
      <leafValues>
        -2.8030377626419067e-01 1.5496566891670227e-01</leafValues></_>
    <_>
      <internalNodes>
        0 -1 132823 -6.7286891862750053e-05</internalNodes>
      <leafValues>
        9.7815275192260742e-02 -4.5271584391593933e-01</leafValues></_>
    <_>
      <internalNodes>
        0 -1 124264 -3.4418029827065766e-04</internalNodes>
      <leafValues>
        -4.0086033940315247e-01 1.0160155594348907e-01</leafValues></_>
    <_>
      <internalNodes>
        0 -1 124264 5.5891182273626328e-04</internalNodes>
      <leafValues>
        1.0315519571304321e-01 -5.2032959461212158e-01</leafValues></_>
    <_>
      <internalNodes>
        0 -1 131856 -2.4800427258014679e-02</internalNodes>
      <leafValues>
        -4.9204233288764954e-01 8.2857780158519745e-02</leafValues></_>
    <_>
      <internalNodes>
        0 -1 112268 -2.4480177089571953e-03</internalNodes>
      <leafValues>
        -4.0240982174873352e-01 1.0794059187173843e-01</leafValues></_>
    <_>
      <internalNodes>
        0 -1 95632 -4.0641173836775124e-04</internalNodes>
      <leafValues>
        1.9038195908069611e-01 -2.2375452518463135e-01</leafValues></_>
    <_>
      <internalNodes>
        0 -1 96175 -5.6601911783218384e-03</internalNodes>
      <leafValues>
        -7.1704286336898804e-01 5.6403063237667084e-02</leafValues></_>
    <_>
      <internalNodes>
        0 -1 77441 5.4848073050379753e-03</internalNodes>
      <leafValues>
        -1.9124861061573029e-01 2.1860301494598389e-01</leafValues></_>
    <_>
      <internalNodes>
        0 -1 49424 -7.2934236377477646e-03</internalNodes>
      <leafValues>
        3.5737058520317078e-01 -1.1690085381269455e-01</leafValues></_>
    <_>
      <internalNodes>
        0 -1 129609 -2.6681568473577499e-02</internalNodes>
      <leafValues>
        2.6834848523139954e-01 -1.6339965164661407e-01</leafValues></_>
    <_>
      <internalNodes>
        0 -1 119755 -1.0927439143415540e-04</internalNodes>
      <leafValues>
        -5.3668564558029175e-01 7.4826218187808990e-02</leafValues></_>
    <_>
      <internalNodes>
        0 -1 105370 -5.4765597451478243e-04</internalNodes>
      <leafValues>
        2.3099383711814880e-01 -1.7914380133152008e-01</leafValues></_>
    <_>
      <internalNodes>
        0 -1 102836 -1.9628917798399925e-02</internalNodes>
      <leafValues>
        -8.4950762987136841e-01 4.8858053982257843e-02</leafValues></_>
    <_>
      <internalNodes>
        0 -1 79417 -5.1411110907793045e-03</internalNodes>
      <leafValues>
        -6.6027927398681641e-01 4.1102696210145950e-02</leafValues></_>
    <_>
      <internalNodes>
        0 -1 58213 -2.2533368319272995e-02</internalNodes>
      <leafValues>
        4.5566740632057190e-01 -8.1546694040298462e-02</leafValues></_>
    <_>
      <internalNodes>
        0 -1 60001 2.8061266057193279e-03</internalNodes>
      <leafValues>
        -1.6758513450622559e-01 2.2230154275894165e-01</leafValues></_>
    <_>
      <internalNodes>
        0 -1 105942 -7.7899834141135216e-03</internalNodes>
      <leafValues>
        -6.8070167303085327e-01 5.1368027925491333e-02</leafValues></_>
    <_>
      <internalNodes>
        0 -1 104445 -2.4189613759517670e-03</internalNodes>
      <leafValues>
        1.4053636789321899e-01 -2.5810790061950684e-01</leafValues></_>
    <_>
      <internalNodes>
        0 -1 126860 -5.0503312377259135e-04</internalNodes>
      <leafValues>
        2.6767650246620178e-01 -1.3397660851478577e-01</leafValues></_>
    <_>
      <internalNodes>
        0 -1 75444 1.4401230216026306e-01</internalNodes>
      <leafValues>
        -6.8744860589504242e-02 5.4447978734970093e-01</leafValues></_>
    <_>
      <internalNodes>
        0 -1 131515 -2.7258771297056228e-05</internalNodes>
      <leafValues>
        1.4503332972526550e-01 -2.7780616283416748e-01</leafValues></_>
    <_>
      <internalNodes>
        0 -1 131578 1.0127952322363853e-02</internalNodes>
      <leafValues>
        5.6042619049549103e-02 -5.9831184148788452e-01</leafValues></_>
    <_>
      <internalNodes>
        0 -1 9958 5.4263621568679810e-03</internalNodes>
      <leafValues>
        -5.1278156042098999e-01 6.8665042519569397e-02</leafValues></_>
    <_>
      <internalNodes>
        0 -1 147695 2.0218026475049555e-04</internalNodes>
      <leafValues>
        7.8634746372699738e-02 -4.2008602619171143e-01</leafValues></_>
    <_>
      <internalNodes>
        0 -1 130067 8.9677214622497559e-02</internalNodes>
      <leafValues>
        -9.1475673019886017e-02 4.4495466351509094e-01</leafValues></_>
    <_>
      <internalNodes>
        0 -1 38404 2.4972660467028618e-02</internalNodes>
      <leafValues>
        -1.8183970451354980e-01 1.9059038162231445e-01</leafValues></_>
    <_>
      <internalNodes>
        0 -1 138622 5.0971319433301687e-04</internalNodes>
      <leafValues>
        -1.3835708796977997e-01 2.5290787220001221e-01</leafValues></_>
    <_>
      <internalNodes>
        0 -1 97743 5.9103528037667274e-03</internalNodes>
      <leafValues>
        9.0478502213954926e-02 -4.1614389419555664e-01</leafValues></_>
    <_>
      <internalNodes>
        0 -1 146998 4.0680449455976486e-03</internalNodes>
      <leafValues>
        5.8177601546049118e-02 -5.6449222564697266e-01</leafValues></_>
    <_>
      <internalNodes>
        0 -1 142665 -1.3982220552861691e-03</internalNodes>
      <leafValues>
        1.7106844484806061e-01 -2.1134452521800995e-01</leafValues></_>
    <_>
      <internalNodes>
        0 -1 127099 -1.4810333959758282e-02</internalNodes>
      <leafValues>
        -2.2656577825546265e-01 1.6963124275207520e-01</leafValues></_>
    <_>
      <internalNodes>
        0 -1 114452 -9.0555306524038315e-03</internalNodes>
      <leafValues>
        -8.5078632831573486e-01 4.4915206730365753e-02</leafValues></_>
    <_>
      <internalNodes>
        0 -1 33256 5.9327315539121628e-03</internalNodes>
      <leafValues>
        -9.0057447552680969e-02 4.4026198983192444e-01</leafValues></_>
    <_>
      <internalNodes>
        0 -1 141906 -2.6077372021973133e-03</internalNodes>
      <leafValues>
        -4.6483042836189270e-01 7.5599938631057739e-02</leafValues></_>
    <_>
      <internalNodes>
        0 -1 138971 -5.5886963382363319e-03</internalNodes>
      <leafValues>
        -6.1843460798263550e-01 4.4174123555421829e-02</leafValues></_>
    <_>
      <internalNodes>
        0 -1 151655 2.9647603514604270e-04</internalNodes>
      <leafValues>
        9.8902724683284760e-02 -3.2080477476119995e-01</leafValues></_>
    <_>
      <internalNodes>
        0 -1 124297 1.1132864747196436e-03</internalNodes>
      <leafValues>
        -2.4718825519084930e-01 1.2434199452400208e-01</leafValues></_>
    <_>
      <internalNodes>
        0 -1 77797 4.5454350765794516e-04</internalNodes>
      <leafValues>
        -1.8393215537071228e-01 1.7770884931087494e-01</leafValues></_>
    <_>
      <internalNodes>
        0 -1 58357 5.2231592126190662e-03</internalNodes>
      <leafValues>
        6.9628231227397919e-02 -4.9715057015419006e-01</leafValues></_>
    <_>
      <internalNodes>
        0 -1 119308 -2.9105041176080704e-03</internalNodes>
      <leafValues>
        4.9322393536567688e-01 -8.4273092448711395e-02</leafValues></_>
    <_>
      <internalNodes>
        0 -1 118978 1.0911871213465929e-03</internalNodes>
      <leafValues>
        -1.3135978579521179e-01 2.7354556322097778e-01</leafValues></_>
    <_>
      <internalNodes>
        0 -1 95723 7.6951384544372559e-03</internalNodes>
      <leafValues>
        6.3156716525554657e-02 -5.8967667818069458e-01</leafValues></_>
    <_>
      <internalNodes>
        0 -1 128209 -4.1382247582077980e-03</internalNodes>
      <leafValues>
        2.7438196539878845e-01 -1.1912578344345093e-01</leafValues></_>
    <_>
      <internalNodes>
        0 -1 19993 -5.0039291381835938e-03</internalNodes>
      <leafValues>
        -3.9839616417884827e-01 8.6383774876594543e-02</leafValues></_>
    <_>
      <internalNodes>
        0 -1 145534 -3.5940505564212799e-02</internalNodes>
      <leafValues>
        3.4741732478141785e-01 -9.5164336264133453e-02</leafValues></_>
    <_>
      <internalNodes>
        0 -1 153870 -1.9861478358507156e-02</internalNodes>
      <leafValues>
        3.1299218535423279e-01 -9.5815710723400116e-02</leafValues></_>
    <_>
      <internalNodes>
        0 -1 133538 4.1134092025458813e-03</internalNodes>
      <leafValues>
        4.5706417411565781e-02 -6.9865685701370239e-01</leafValues></_>
    <_>
      <internalNodes>
        0 -1 133925 3.1806644983589649e-03</internalNodes>
      <leafValues>
        -1.2065187096595764e-01 2.6299980282783508e-01</leafValues></_>
    <_>
      <internalNodes>
        0 -1 127087 4.8598740249872208e-04</internalNodes>
      <leafValues>
        -9.9315263330936432e-02 2.9927274584770203e-01</leafValues></_>
    <_>
      <internalNodes>
        0 -1 120907 -1.7757401801645756e-03</internalNodes>
      <leafValues>
        -5.0595957040786743e-01 6.0465481132268906e-02</leafValues></_>
    <_>
      <internalNodes>
        0 -1 68580 9.8228035494685173e-04</internalNodes>
      <leafValues>
        7.9797834157943726e-02 -3.4550994634628296e-01</leafValues></_>
    <_>
      <internalNodes>
        0 -1 125146 1.7493598163127899e-02</internalNodes>
      <leafValues>
        4.3743800371885300e-02 -6.3091284036636353e-01</leafValues></_>
    <_>
      <internalNodes>
        0 -1 126160 -1.2519607320427895e-02</internalNodes>
      <leafValues>
        -7.3170918226242065e-01 3.4298747777938843e-02</leafValues></_>
    <_>
      <internalNodes>
        0 -1 160181 2.3759691976010799e-03</internalNodes>
      <leafValues>
        5.3349863737821579e-02 -4.8706102371215820e-01</leafValues></_>
    <_>
      <internalNodes>
        0 -1 121392 -1.0306298732757568e-02</internalNodes>
      <leafValues>
        -6.5904253721237183e-01 3.9207741618156433e-02</leafValues></_>
    <_>
      <internalNodes>
        0 -1 121042 1.4788865519221872e-04</internalNodes>
      <leafValues>
        -1.6485293209552765e-01 1.6856347024440765e-01</leafValues></_>
    <_>
      <internalNodes>
        0 -1 89089 3.2526245340704918e-03</internalNodes>
      <leafValues>
        -8.2072399556636810e-02 3.5276412963867188e-01</leafValues></_></weakClassifiers></stage9>
</opencv_storage>
