<?xml version="1.0"?>
<opencv_storage>
<stage2>
  <maxWeakCount>17</maxWeakCount>
  <stageThreshold>-1.6538935899734497e+00</stageThreshold>
  <weakClassifiers>
    <_>
      <internalNodes>
        0 -1 96131 -1.1188531294465065e-02</internalNodes>
      <leafValues>
        -5.0023615360260010e-01 6.7055225372314453e-01</leafValues></_>
    <_>
      <internalNodes>
        0 -1 119524 2.6087616570293903e-03</internalNodes>
      <leafValues>
        -8.3042502403259277e-01 4.0247759222984314e-01</leafValues></_>
    <_>
      <internalNodes>
        0 -1 107847 -3.8814790546894073e-02</internalNodes>
      <leafValues>
        7.0316886901855469e-01 -4.5752412080764771e-01</leafValues></_>
    <_>
      <internalNodes>
        0 -1 103662 2.5768703781068325e-03</internalNodes>
      <leafValues>
        -6.6071629524230957e-01 3.5829496383666992e-01</leafValues></_>
    <_>
      <internalNodes>
        0 -1 32064 5.4394364356994629e-02</internalNodes>
      <leafValues>
        -2.9765340685844421e-01 7.9427558183670044e-01</leafValues></_>
    <_>
      <internalNodes>
        0 -1 133294 -1.4633333776146173e-03</internalNodes>
      <leafValues>
        4.1855949163436890e-01 -4.8000168800354004e-01</leafValues></_>
    <_>
      <internalNodes>
        0 -1 119755 -2.6410812279209495e-04</internalNodes>
      <leafValues>
        -8.2967972755432129e-01 2.0987345278263092e-01</leafValues></_>
    <_>
      <internalNodes>
        0 -1 78930 -1.8483807798475027e-03</internalNodes>
      <leafValues>
        2.0958077907562256e-01 -6.8686217069625854e-01</leafValues></_>
    <_>
      <internalNodes>
        0 -1 84221 8.2913629012182355e-04</internalNodes>
      <leafValues>
        2.3727808892726898e-01 -6.2199568748474121e-01</leafValues></_>
    <_>
      <internalNodes>
        0 -1 96131 -4.6380870044231415e-03</internalNodes>
      <leafValues>
        -2.6711651682853699e-01 6.2802475690841675e-01</leafValues></_>
    <_>
      <internalNodes>
        0 -1 137862 -9.4652548432350159e-04</internalNodes>
      <leafValues>
        -6.4730739593505859e-01 2.6204246282577515e-01</leafValues></_>
    <_>
      <internalNodes>
        0 -1 121772 -1.3027317821979523e-01</internalNodes>
      <leafValues>
        6.6721737384796143e-01 -2.4208423495292664e-01</leafValues></_>
    <_>
      <internalNodes>
        0 -1 89072 8.0953119322657585e-04</internalNodes>
      <leafValues>
        -4.4753116369247437e-01 3.2725566625595093e-01</leafValues></_>
    <_>
      <internalNodes>
        0 -1 87420 2.0866612903773785e-03</internalNodes>
      <leafValues>
        1.6783873736858368e-01 -7.6931607723236084e-01</leafValues></_>
    <_>
      <internalNodes>
        0 -1 111905 3.5173603100702167e-04</internalNodes>
      <leafValues>
        1.7653857171535492e-01 -6.5251821279525757e-01</leafValues></_>
    <_>
      <internalNodes>
        0 -1 88565 5.2269198931753635e-04</internalNodes>
      <leafValues>
        1.6090123355388641e-01 -6.6542559862136841e-01</leafValues></_>
    <_>
      <internalNodes>
        0 -1 120753 -1.7429677769541740e-02</internalNodes>
      <leafValues>
        -8.1153714656829834e-01 1.3787040114402771e-01</leafValues></_></weakClassifiers></stage2>
</opencv_storage>
