<?xml version="1.0"?>
<opencv_storage>
<stage0>
  <maxWeakCount>6</maxWeakCount>
  <stageThreshold>-1.8213577270507813e+00</stageThreshold>
  <weakClassifiers>
    <_>
      <internalNodes>
        0 -1 87456 4.1638715192675591e-03</internalNodes>
      <leafValues>
        -9.0892195701599121e-01 8.4763371944427490e-01</leafValues></_>
    <_>
      <internalNodes>
        0 -1 87235 -1.4739220961928368e-02</internalNodes>
      <leafValues>
        -8.3014923334121704e-01 6.7645180225372314e-01</leafValues></_>
    <_>
      <internalNodes>
        0 -1 107741 2.5169599801301956e-02</internalNodes>
      <leafValues>
        -4.9541068077087402e-01 7.9871648550033569e-01</leafValues></_>
    <_>
      <internalNodes>
        0 -1 137708 2.7455096133053303e-03</internalNodes>
      <leafValues>
        -8.3948034048080444e-01 4.8291042447090149e-01</leafValues></_>
    <_>
      <internalNodes>
        0 -1 111436 1.0068613337352872e-03</internalNodes>
      <leafValues>
        -6.2537598609924316e-01 5.3610342741012573e-01</leafValues></_>
    <_>
      <internalNodes>
        0 -1 88185 -1.0730370413511992e-03</internalNodes>
      <leafValues>
        3.7137940526008606e-01 -7.4773621559143066e-01</leafValues></_></weakClassifiers></stage0>
</opencv_storage>
