<?xml version="1.0"?>
<opencv_storage>
<stage7>
  <maxWeakCount>51</maxWeakCount>
  <stageThreshold>-1.3849620819091797e+00</stageThreshold>
  <weakClassifiers>
    <_>
      <internalNodes>
        0 -1 107251 -4.7146726399660110e-02</internalNodes>
      <leafValues>
        6.8122607469558716e-01 -6.3173219561576843e-02</leafValues></_>
    <_>
      <internalNodes>
        0 -1 112249 -1.6866567311808467e-03</internalNodes>
      <leafValues>
        3.3134606480598450e-01 -5.0080293416976929e-01</leafValues></_>
    <_>
      <internalNodes>
        0 -1 138622 2.3294131096918136e-04</internalNodes>
      <leafValues>
        -3.4510889649391174e-01 3.1235969066619873e-01</leafValues></_>
    <_>
      <internalNodes>
        0 -1 111431 1.3594410847872496e-04</internalNodes>
      <leafValues>
        -6.0500174760818481e-01 1.5999695658683777e-01</leafValues></_>
    <_>
      <internalNodes>
        0 -1 67727 8.6924212519079447e-04</internalNodes>
      <leafValues>
        -4.3635860085487366e-01 2.1084846556186676e-01</leafValues></_>
    <_>
      <internalNodes>
        0 -1 85790 1.3146988349035382e-03</internalNodes>
      <leafValues>
        1.4298610389232635e-01 -5.4916167259216309e-01</leafValues></_>
    <_>
      <internalNodes>
        0 -1 143197 -2.8439633751986548e-05</internalNodes>
      <leafValues>
        1.3793194293975830e-01 -5.2589386701583862e-01</leafValues></_>
    <_>
      <internalNodes>
        0 -1 120372 2.3269688244909048e-03</internalNodes>
      <leafValues>
        5.1883384585380554e-02 -6.3773441314697266e-01</leafValues></_>
    <_>
      <internalNodes>
        0 -1 120754 -1.6162247629836202e-03</internalNodes>
      <leafValues>
        -6.9551235437393188e-01 9.4353094696998596e-02</leafValues></_>
    <_>
      <internalNodes>
        0 -1 70476 -7.1569979190826416e-03</internalNodes>
      <leafValues>
        2.8196996450424194e-01 -2.5022745132446289e-01</leafValues></_>
    <_>
      <internalNodes>
        0 -1 118248 -7.8501098323613405e-04</internalNodes>
      <leafValues>
        -6.2595432996749878e-01 9.6620894968509674e-02</leafValues></_>
    <_>
      <internalNodes>
        0 -1 117436 5.6644692085683346e-04</internalNodes>
      <leafValues>
        9.8250284790992737e-02 -5.7263040542602539e-01</leafValues></_>
    <_>
      <internalNodes>
        0 -1 137776 -2.3702410981059074e-03</internalNodes>
      <leafValues>
        1.7374387383460999e-01 -3.5701602697372437e-01</leafValues></_>
    <_>
      <internalNodes>
        0 -1 64406 -1.2920808047056198e-02</internalNodes>
      <leafValues>
        2.4228003621101379e-01 -2.3781226575374603e-01</leafValues></_>
    <_>
      <internalNodes>
        0 -1 69399 -5.7770507410168648e-03</internalNodes>
      <leafValues>
        -6.4167416095733643e-01 9.6346668899059296e-02</leafValues></_>
    <_>
      <internalNodes>
        0 -1 88565 1.0124080581590533e-03</internalNodes>
      <leafValues>
        7.3450267314910889e-02 -7.9014456272125244e-01</leafValues></_>
    <_>
      <internalNodes>
        0 -1 21353 -2.3297261446714401e-02</internalNodes>
      <leafValues>
        -7.2394305467605591e-01 6.2832243740558624e-02</leafValues></_>
    <_>
      <internalNodes>
        0 -1 89072 2.3924140259623528e-03</internalNodes>
      <leafValues>
        -2.7847880125045776e-01 2.0327210426330566e-01</leafValues></_>
    <_>
      <internalNodes>
        0 -1 119500 5.4811490699648857e-03</internalNodes>
      <leafValues>
        -5.1350224018096924e-01 1.1378598213195801e-01</leafValues></_>
    <_>
      <internalNodes>
        0 -1 97205 -6.4492085948586464e-03</internalNodes>
      <leafValues>
        -6.1096483469009399e-01 9.3353308737277985e-02</leafValues></_>
    <_>
      <internalNodes>
        0 -1 114192 -8.9623769745230675e-03</internalNodes>
      <leafValues>
        -6.9427561759948730e-01 7.3981165885925293e-02</leafValues></_>
    <_>
      <internalNodes>
        0 -1 137361 2.4935316105256788e-05</internalNodes>
      <leafValues>
        -2.6931527256965637e-01 1.8694953620433807e-01</leafValues></_>
    <_>
      <internalNodes>
        0 -1 87247 -1.1769877746701241e-03</internalNodes>
      <leafValues>
        1.6183702647686005e-01 -3.4548017382621765e-01</leafValues></_>
    <_>
      <internalNodes>
        0 -1 28912 7.2807617485523224e-02</internalNodes>
      <leafValues>
        -1.3168680667877197e-01 3.8867056369781494e-01</leafValues></_>
    <_>
      <internalNodes>
        0 -1 79957 -3.6671590059995651e-03</internalNodes>
      <leafValues>
        -6.3516193628311157e-01 7.9493798315525055e-02</leafValues></_>
    <_>
      <internalNodes>
        0 -1 150024 3.3303312957286835e-03</internalNodes>
      <leafValues>
        6.6779762506484985e-02 -6.6035294532775879e-01</leafValues></_>
    <_>
      <internalNodes>
        0 -1 31572 -5.1029426977038383e-03</internalNodes>
      <leafValues>
        -5.5491191148757935e-01 9.0318962931632996e-02</leafValues></_>
    <_>
      <internalNodes>
        0 -1 113359 3.6569131771102548e-04</internalNodes>
      <leafValues>
        -1.7743556201457977e-01 3.1220838427543640e-01</leafValues></_>
    <_>
      <internalNodes>
        0 -1 138997 7.3225994128733873e-04</internalNodes>
      <leafValues>
        9.8704077303409576e-02 -4.9274343252182007e-01</leafValues></_>
    <_>
      <internalNodes>
        0 -1 3676 -1.9562351703643799e-01</internalNodes>
      <leafValues>
        5.1658892631530762e-01 -8.9977316558361053e-02</leafValues></_>
    <_>
      <internalNodes>
        0 -1 142213 8.1382459029555321e-04</internalNodes>
      <leafValues>
        -5.8328115940093994e-01 8.8846512138843536e-02</leafValues></_>
    <_>
      <internalNodes>
        0 -1 103469 1.1541111394762993e-02</internalNodes>
      <leafValues>
        -2.5383079051971436e-01 1.9401264190673828e-01</leafValues></_>
    <_>
      <internalNodes>
        0 -1 121555 4.0883973240852356e-02</internalNodes>
      <leafValues>
        8.2621179521083832e-02 -5.3219193220138550e-01</leafValues></_>
    <_>
      <internalNodes>
        0 -1 100012 -6.3084159046411514e-03</internalNodes>
      <leafValues>
        -6.1421352624893188e-01 6.8067610263824463e-02</leafValues></_>
    <_>
      <internalNodes>
        0 -1 56782 -1.2941479217261076e-03</internalNodes>
      <leafValues>
        1.9818340241909027e-01 -2.2212779521942139e-01</leafValues></_>
    <_>
      <internalNodes>
        0 -1 111921 5.6318570859730244e-03</internalNodes>
      <leafValues>
        1.1647740751504898e-01 -3.6399158835411072e-01</leafValues></_>
    <_>
      <internalNodes>
        0 -1 112218 -5.5318474769592285e-03</internalNodes>
      <leafValues>
        -4.9134546518325806e-01 8.9712277054786682e-02</leafValues></_>
    <_>
      <internalNodes>
        0 -1 138389 -2.3744799196720123e-02</internalNodes>
      <leafValues>
        2.7667248249053955e-01 -1.7966322600841522e-01</leafValues></_>
    <_>
      <internalNodes>
        0 -1 96422 5.2465003682300448e-04</internalNodes>
      <leafValues>
        1.0707804560661316e-01 -4.5473784208297729e-01</leafValues></_>
    <_>
      <internalNodes>
        0 -1 77881 -2.1530375815927982e-03</internalNodes>
      <leafValues>
        -4.7671395540237427e-01 9.3326061964035034e-02</leafValues></_>
    <_>
      <internalNodes>
        0 -1 77794 -7.0924928877502680e-05</internalNodes>
      <leafValues>
        -3.8578096032142639e-01 1.3020980358123779e-01</leafValues></_>
    <_>
      <internalNodes>
        0 -1 125748 -1.9490756676532328e-04</internalNodes>
      <leafValues>
        1.4733643829822540e-01 -3.4012421965599060e-01</leafValues></_>
    <_>
      <internalNodes>
        0 -1 107789 2.8391510248184204e-02</internalNodes>
      <leafValues>
        -1.2608261406421661e-01 3.4759432077407837e-01</leafValues></_>
    <_>
      <internalNodes>
        0 -1 147181 3.7604104727506638e-02</internalNodes>
      <leafValues>
        -1.0388541221618652e-01 4.1103583574295044e-01</leafValues></_>
    <_>
      <internalNodes>
        0 -1 84487 1.1514112353324890e-01</internalNodes>
      <leafValues>
        -9.4156086444854736e-02 4.7905057668685913e-01</leafValues></_>
    <_>
      <internalNodes>
        0 -1 127657 -5.0340676680207253e-03</internalNodes>
      <leafValues>
        3.0424734950065613e-01 -1.4559058845043182e-01</leafValues></_>
    <_>
      <internalNodes>
        0 -1 88338 -1.2525110505521297e-03</internalNodes>
      <leafValues>
        2.2470261156558990e-01 -2.0232912898063660e-01</leafValues></_>
    <_>
      <internalNodes>
        0 -1 87705 -8.4831323474645615e-03</internalNodes>
      <leafValues>
        -4.7363460063934326e-01 8.5885383188724518e-02</leafValues></_>
    <_>
      <internalNodes>
        0 -1 35956 -3.3368572592735291e-02</internalNodes>
      <leafValues>
        3.9747196435928345e-01 -1.1677760630846024e-01</leafValues></_>
    <_>
      <internalNodes>
        0 -1 96134 2.6743658818304539e-03</internalNodes>
      <leafValues>
        -2.7463537454605103e-01 1.4849725365638733e-01</leafValues></_>
    <_>
      <internalNodes>
        0 -1 96172 9.9235575180500746e-04</internalNodes>
      <leafValues>
        -6.0129553079605103e-01 6.4900152385234833e-02</leafValues></_></weakClassifiers></stage7>
</opencv_storage>
