<?xml version="1.0"?>
<opencv_storage>
<stage10>
  <maxWeakCount>85</maxWeakCount>
  <stageThreshold>-1.2539081573486328e+00</stageThreshold>
  <weakClassifiers>
    <_>
      <internalNodes>
        0 -1 103662 3.2848727423697710e-03</internalNodes>
      <leafValues>
        -3.3178654313087463e-01 4.7531780600547791e-01</leafValues></_>
    <_>
      <internalNodes>
        0 -1 121683 -4.9062989652156830e-02</internalNodes>
      <leafValues>
        4.3737208843231201e-01 -2.1642099320888519e-01</leafValues></_>
    <_>
      <internalNodes>
        0 -1 142662 2.7587804943323135e-03</internalNodes>
      <leafValues>
        -3.1617525219917297e-01 2.5904870033264160e-01</leafValues></_>
    <_>
      <internalNodes>
        0 -1 97660 -2.7218356262892485e-04</internalNodes>
      <leafValues>
        2.5394862890243530e-01 -2.5517868995666504e-01</leafValues></_>
    <_>
      <internalNodes>
        0 -1 87599 4.0601548971608281e-04</internalNodes>
      <leafValues>
        -3.2800781726837158e-01 2.0043194293975830e-01</leafValues></_>
    <_>
      <internalNodes>
        0 -1 84723 -5.4584123427048326e-04</internalNodes>
      <leafValues>
        1.1319498717784882e-01 -3.6310359835624695e-01</leafValues></_>
    <_>
      <internalNodes>
        0 -1 104494 6.0723228380084038e-03</internalNodes>
      <leafValues>
        1.0814603418111801e-01 -4.8183372616767883e-01</leafValues></_>
    <_>
      <internalNodes>
        0 -1 96048 -6.7741107195615768e-03</internalNodes>
      <leafValues>
        -5.5757886171340942e-01 7.8737273812294006e-02</leafValues></_>
    <_>
      <internalNodes>
        0 -1 104104 2.0949039608240128e-03</internalNodes>
      <leafValues>
        1.2206389009952545e-01 -3.6888632178306580e-01</leafValues></_>
    <_>
      <internalNodes>
        0 -1 138771 -9.6294470131397247e-04</internalNodes>
      <leafValues>
        1.9374012947082520e-01 -2.3266983032226563e-01</leafValues></_>
    <_>
      <internalNodes>
        0 -1 46909 -1.0421037441119552e-03</internalNodes>
      <leafValues>
        -6.0121822357177734e-01 7.1794658899307251e-02</leafValues></_>
    <_>
      <internalNodes>
        0 -1 35187 -3.8756523281335831e-03</internalNodes>
      <leafValues>
        -5.7488715648651123e-01 6.8635933101177216e-02</leafValues></_>
    <_>
      <internalNodes>
        0 -1 131319 2.6397178880870342e-03</internalNodes>
      <leafValues>
        -3.2299518585205078e-01 1.1070633679628372e-01</leafValues></_>
    <_>
      <internalNodes>
        0 -1 113417 8.4080989472568035e-04</internalNodes>
      <leafValues>
        -1.4364017546176910e-01 2.6681149005889893e-01</leafValues></_>
    <_>
      <internalNodes>
        0 -1 96175 2.5230916216969490e-03</internalNodes>
      <leafValues>
        9.2185609042644501e-02 -4.2297896742820740e-01</leafValues></_>
    <_>
      <internalNodes>
        0 -1 119344 6.9566105958074331e-04</internalNodes>
      <leafValues>
        -2.4615938961505890e-01 1.4792113006114960e-01</leafValues></_>
    <_>
      <internalNodes>
        0 -1 126063 -6.4865039894357324e-04</internalNodes>
      <leafValues>
        -6.7664021253585815e-01 6.1255313456058502e-02</leafValues></_>
    <_>
      <internalNodes>
        0 -1 132004 2.1455739624798298e-03</internalNodes>
      <leafValues>
        7.8645378351211548e-02 -4.3762519955635071e-01</leafValues></_>
    <_>
      <internalNodes>
        0 -1 97396 1.3628497254103422e-04</internalNodes>
      <leafValues>
        8.3796091377735138e-02 -4.3700531125068665e-01</leafValues></_>
    <_>
      <internalNodes>
        0 -1 79024 -2.9966481961309910e-03</internalNodes>
      <leafValues>
        -6.6148227453231812e-01 5.0185538828372955e-02</leafValues></_>
    <_>
      <internalNodes>
        0 -1 89392 -5.7708481326699257e-03</internalNodes>
      <leafValues>
        1.5198497474193573e-01 -2.3608787357807159e-01</leafValues></_>
    <_>
      <internalNodes>
        0 -1 21947 -5.9290435165166855e-03</internalNodes>
      <leafValues>
        -4.2537841200828552e-01 8.4706939756870270e-02</leafValues></_>
    <_>
      <internalNodes>
        0 -1 79090 -4.6503922203555703e-04</internalNodes>
      <leafValues>
        1.2997294962406158e-01 -2.4862721562385559e-01</leafValues></_>
    <_>
      <internalNodes>
        0 -1 85326 -6.8511959398165345e-04</internalNodes>
      <leafValues>
        -3.3011034131050110e-01 1.0701875388622284e-01</leafValues></_>
    <_>
      <internalNodes>
        0 -1 86533 3.3913888037204742e-02</internalNodes>
      <leafValues>
        7.4173629283905029e-02 -4.5967903733253479e-01</leafValues></_>
    <_>
      <internalNodes>
        0 -1 104453 -1.2467352673411369e-02</internalNodes>
      <leafValues>
        -6.5368615090847015e-02 5.4498773813247681e-01</leafValues></_>
    <_>
      <internalNodes>
        0 -1 39312 1.2249968945980072e-02</internalNodes>
      <leafValues>
        -1.0886378586292267e-01 2.9648023843765259e-01</leafValues></_>
    <_>
      <internalNodes>
        0 -1 131021 -1.3349874876439571e-02</internalNodes>
      <leafValues>
        -5.5136537551879883e-01 5.9858649969100952e-02</leafValues></_>
    <_>
      <internalNodes>
        0 -1 106275 -1.7155628302134573e-04</internalNodes>
      <leafValues>
        1.9936539232730865e-01 -1.5825481712818146e-01</leafValues></_>
    <_>
      <internalNodes>
        0 -1 19348 -4.5477491803467274e-03</internalNodes>
      <leafValues>
        -3.5041531920433044e-01 9.2072054743766785e-02</leafValues></_>
    <_>
      <internalNodes>
        0 -1 94495 -8.5390480235219002e-03</internalNodes>
      <leafValues>
        1.6902740299701691e-01 -1.8680875003337860e-01</leafValues></_>
    <_>
      <internalNodes>
        0 -1 9998 3.7001155316829681e-02</internalNodes>
      <leafValues>
        4.7618299722671509e-02 -7.0090603828430176e-01</leafValues></_>
    <_>
      <internalNodes>
        0 -1 57511 6.8723061122000217e-04</internalNodes>
      <leafValues>
        -7.1435785293579102e-01 3.8236364722251892e-02</leafValues></_>
    <_>
      <internalNodes>
        0 -1 95238 1.2779810931533575e-03</internalNodes>
      <leafValues>
        -7.7120438218116760e-02 4.4857370853424072e-01</leafValues></_>
    <_>
      <internalNodes>
        0 -1 137857 2.6148045435547829e-03</internalNodes>
      <leafValues>
        4.4503990560770035e-02 -8.2552194595336914e-01</leafValues></_>
    <_>
      <internalNodes>
        0 -1 137857 -6.7477754782885313e-04</internalNodes>
      <leafValues>
        -3.9133712649345398e-01 7.9648964107036591e-02</leafValues></_>
    <_>
      <internalNodes>
        0 -1 95742 -1.5500385779887438e-03</internalNodes>
      <leafValues>
        9.7069159150123596e-02 -3.1854382157325745e-01</leafValues></_>
    <_>
      <internalNodes>
        0 -1 70155 -4.1999509558081627e-03</internalNodes>
      <leafValues>
        -4.8338595032691956e-01 6.6923804581165314e-02</leafValues></_>
    <_>
      <internalNodes>
        0 -1 113187 1.6536410897970200e-02</internalNodes>
      <leafValues>
        5.8275297284126282e-02 -4.6686115860939026e-01</leafValues></_>
    <_>
      <internalNodes>
        0 -1 113860 -4.5828451402485371e-03</internalNodes>
      <leafValues>
        3.5875189304351807e-01 -1.2842571735382080e-01</leafValues></_>
    <_>
      <internalNodes>
        0 -1 143548 -2.9125809669494629e-03</internalNodes>
      <leafValues>
        -5.5489331483840942e-01 5.9497665613889694e-02</leafValues></_>
    <_>
      <internalNodes>
        0 -1 54344 1.0547623038291931e-02</internalNodes>
      <leafValues>
        -1.3577653467655182e-01 2.3668795824050903e-01</leafValues></_>
    <_>
      <internalNodes>
        0 -1 138645 -1.9154121400788426e-04</internalNodes>
      <leafValues>
        1.3052585721015930e-01 -2.0973137021064758e-01</leafValues></_>
    <_>
      <internalNodes>
        0 -1 95292 6.5321577712893486e-03</internalNodes>
      <leafValues>
        5.8825753629207611e-02 -4.9533757567405701e-01</leafValues></_>
    <_>
      <internalNodes>
        0 -1 124274 -9.0554665075615048e-04</internalNodes>
      <leafValues>
        1.1885689198970795e-01 -2.4283815920352936e-01</leafValues></_>
    <_>
      <internalNodes>
        0 -1 127156 -7.3481626808643341e-02</internalNodes>
      <leafValues>
        -5.5365568399429321e-01 5.4664339870214462e-02</leafValues></_>
    <_>
      <internalNodes>
        0 -1 87914 1.1316384188830853e-03</internalNodes>
      <leafValues>
        5.2724331617355347e-02 -5.1640808582305908e-01</leafValues></_>
    <_>
      <internalNodes>
        0 -1 141579 4.5573534443974495e-03</internalNodes>
      <leafValues>
        5.4265435785055161e-02 -4.8814117908477783e-01</leafValues></_>
    <_>
      <internalNodes>
        0 -1 60300 -5.8112000115215778e-03</internalNodes>
      <leafValues>
        2.7839490771293640e-01 -9.8610594868659973e-02</leafValues></_>
    <_>
      <internalNodes>
        0 -1 96450 -7.0057169068604708e-04</internalNodes>
      <leafValues>
        1.5873317420482635e-01 -1.7766670882701874e-01</leafValues></_>
    <_>
      <internalNodes>
        0 -1 79045 -1.0348780080676079e-02</internalNodes>
      <leafValues>
        3.3585208654403687e-01 -1.0148011147975922e-01</leafValues></_>
    <_>
      <internalNodes>
        0 -1 88660 -7.2774291038513184e-03</internalNodes>
      <leafValues>
        -4.0174838900566101e-01 7.2189189493656158e-02</leafValues></_>
    <_>
      <internalNodes>
        0 -1 105885 -4.5140594011172652e-04</internalNodes>
      <leafValues>
        2.4507780373096466e-01 -1.2550437450408936e-01</leafValues></_>
    <_>
      <internalNodes>
        0 -1 120590 1.0913552250713110e-03</internalNodes>
      <leafValues>
        -9.5978707075119019e-02 3.5628414154052734e-01</leafValues></_>
    <_>
      <internalNodes>
        0 -1 105475 1.1894727125763893e-02</internalNodes>
      <leafValues>
        4.6747840940952301e-02 -7.1326440572738647e-01</leafValues></_>
    <_>
      <internalNodes>
        0 -1 138338 1.1879949597641826e-03</internalNodes>
      <leafValues>
        4.3674983084201813e-02 -6.0947901010513306e-01</leafValues></_>
    <_>
      <internalNodes>
        0 -1 57768 -1.6152083873748779e-02</internalNodes>
      <leafValues>
        3.9823430776596069e-01 -7.6834291219711304e-02</leafValues></_>
    <_>
      <internalNodes>
        0 -1 138364 -2.5397291406989098e-02</internalNodes>
      <leafValues>
        2.6622605323791504e-01 -1.0190064460039139e-01</leafValues></_>
    <_>
      <internalNodes>
        0 -1 125336 -3.0998173169791698e-03</internalNodes>
      <leafValues>
        1.1399661749601364e-01 -2.5611671805381775e-01</leafValues></_>
    <_>
      <internalNodes>
        0 -1 127293 2.2541843354701996e-03</internalNodes>
      <leafValues>
        5.4757747799158096e-02 -5.4935753345489502e-01</leafValues></_>
    <_>
      <internalNodes>
        0 -1 126628 -4.1638809489086270e-04</internalNodes>
      <leafValues>
        3.0818367004394531e-01 -1.0015568137168884e-01</leafValues></_>
    <_>
      <internalNodes>
        0 -1 113330 2.5909594114637002e-05</internalNodes>
      <leafValues>
        -1.4825557172298431e-01 2.0587633550167084e-01</leafValues></_>
    <_>
      <internalNodes>
        0 -1 110591 -6.5302045550197363e-04</internalNodes>
      <leafValues>
        -4.9410763382911682e-01 6.2068425118923187e-02</leafValues></_>
    <_>
      <internalNodes>
        0 -1 111855 -2.6564560830593109e-03</internalNodes>
      <leafValues>
        -4.6626663208007813e-01 6.2653318047523499e-02</leafValues></_>
    <_>
      <internalNodes>
        0 -1 103275 -3.1716821249574423e-03</internalNodes>
      <leafValues>
        -3.2594013214111328e-01 8.6282409727573395e-02</leafValues></_>
    <_>
      <internalNodes>
        0 -1 137418 2.0987698808312416e-03</internalNodes>
      <leafValues>
        -5.6763428449630737e-01 4.5830715447664261e-02</leafValues></_>
    <_>
      <internalNodes>
        0 -1 100916 2.0918155089020729e-02</internalNodes>
      <leafValues>
        -1.2047927081584930e-01 2.2654023766517639e-01</leafValues></_>
    <_>
      <internalNodes>
        0 -1 142168 7.8965054126456380e-04</internalNodes>
      <leafValues>
        -1.7349062860012054e-01 1.7262758314609528e-01</leafValues></_>
    <_>
      <internalNodes>
        0 -1 133269 2.1848910546395928e-04</internalNodes>
      <leafValues>
        -2.2112601995468140e-01 1.2564121186733246e-01</leafValues></_>
    <_>
      <internalNodes>
        0 -1 114741 2.9421303421258926e-02</internalNodes>
      <leafValues>
        -7.5308255851268768e-02 3.7554731965065002e-01</leafValues></_>
    <_>
      <internalNodes>
        0 -1 139491 2.7379799634218216e-02</internalNodes>
      <leafValues>
        -6.5551951527595520e-02 4.8666313290596008e-01</leafValues></_>
    <_>
      <internalNodes>
        0 -1 120576 3.3334223553538322e-03</internalNodes>
      <leafValues>
        5.4260388016700745e-02 -5.6933039426803589e-01</leafValues></_>
    <_>
      <internalNodes>
        0 -1 119298 -7.0295133627951145e-04</internalNodes>
      <leafValues>
        3.6076310276985168e-01 -8.9077040553092957e-02</leafValues></_>
    <_>
      <internalNodes>
        0 -1 118657 -3.2748198136687279e-03</internalNodes>
      <leafValues>
        2.7876108884811401e-01 -1.1703963577747345e-01</leafValues></_>
    <_>
      <internalNodes>
        0 -1 117920 -1.2041067238897085e-03</internalNodes>
      <leafValues>
        -3.2342535257339478e-01 9.2275030910968781e-02</leafValues></_>
    <_>
      <internalNodes>
        0 -1 59931 9.1868285089731216e-03</internalNodes>
      <leafValues>
        5.5577389895915985e-02 -4.6491175889968872e-01</leafValues></_>
    <_>
      <internalNodes>
        0 -1 67769 1.0742840822786093e-03</internalNodes>
      <leafValues>
        -2.3190948367118835e-01 1.1006648093461990e-01</leafValues></_>
    <_>
      <internalNodes>
        0 -1 86730 3.2422458752989769e-04</internalNodes>
      <leafValues>
        -3.4468707442283630e-01 8.2487262785434723e-02</leafValues></_>
    <_>
      <internalNodes>
        0 -1 106099 -5.5341789266094565e-04</internalNodes>
      <leafValues>
        2.8994372487068176e-01 -1.0161030292510986e-01</leafValues></_>
    <_>
      <internalNodes>
        0 -1 113824 -2.6472667232155800e-03</internalNodes>
      <leafValues>
        2.7614447474479675e-01 -1.0079114139080048e-01</leafValues></_>
    <_>
      <internalNodes>
        0 -1 28653 1.0154984192922711e-03</internalNodes>
      <leafValues>
        5.7391658425331116e-02 -4.8577669262886047e-01</leafValues></_>
    <_>
      <internalNodes>
        0 -1 85344 -1.6078148037195206e-02</internalNodes>
      <leafValues>
        -6.4905643463134766e-01 4.2877133935689926e-02</leafValues></_>
    <_>
      <internalNodes>
        0 -1 26138 -1.6108326613903046e-02</internalNodes>
      <leafValues>
        3.6238950490951538e-01 -8.4418885409832001e-02</leafValues></_>
    <_>
      <internalNodes>
        0 -1 138844 -2.9785677324980497e-03</internalNodes>
      <leafValues>
        -4.0821629762649536e-01 7.2684235870838165e-02</leafValues></_>
    <_>
      <internalNodes>
        0 -1 113821 -2.4064809549599886e-03</internalNodes>
      <leafValues>
        3.4784263372421265e-01 -9.3231782317161560e-02</leafValues></_></weakClassifiers></stage10>
</opencv_storage>
