<?xml version="1.0"?>
<opencv_storage>
<stage4>
  <maxWeakCount>30</maxWeakCount>
  <stageThreshold>-1.6069111824035645e+00</stageThreshold>
  <weakClassifiers>
    <_>
      <internalNodes>
        0 -1 137706 -1.5923518221825361e-03</internalNodes>
      <leafValues>
        6.3032072782516479e-01 -3.5963720083236694e-01</leafValues></_>
    <_>
      <internalNodes>
        0 -1 14885 2.7973346412181854e-02</internalNodes>
      <leafValues>
        -4.0272948145866394e-01 5.2300590276718140e-01</leafValues></_>
    <_>
      <internalNodes>
        0 -1 111436 1.0415741708129644e-03</internalNodes>
      <leafValues>
        -6.0813093185424805e-01 3.0695241689682007e-01</leafValues></_>
    <_>
      <internalNodes>
        0 -1 119544 2.3240153677761555e-03</internalNodes>
      <leafValues>
        -8.0752676725387573e-01 1.6789805889129639e-01</leafValues></_>
    <_>
      <internalNodes>
        0 -1 67249 -8.5939432028681040e-04</internalNodes>
      <leafValues>
        3.3970409631729126e-01 -3.8108509778976440e-01</leafValues></_>
    <_>
      <internalNodes>
        0 -1 141489 -3.2196018844842911e-02</internalNodes>
      <leafValues>
        5.6070476770401001e-01 -2.1077492833137512e-01</leafValues></_>
    <_>
      <internalNodes>
        0 -1 106226 -7.7588796615600586e-02</internalNodes>
      <leafValues>
        -5.4794222116470337e-01 2.1856835484504700e-01</leafValues></_>
    <_>
      <internalNodes>
        0 -1 131910 -6.7388727329671383e-03</internalNodes>
      <leafValues>
        -7.7330940961837769e-01 1.2970469892024994e-01</leafValues></_>
    <_>
      <internalNodes>
        0 -1 111018 -7.3941366281360388e-04</internalNodes>
      <leafValues>
        2.0171709358692169e-01 -5.2041745185852051e-01</leafValues></_>
    <_>
      <internalNodes>
        0 -1 119340 -8.9393224334344268e-04</internalNodes>
      <leafValues>
        2.4352090060710907e-01 -5.0279456377029419e-01</leafValues></_>
    <_>
      <internalNodes>
        0 -1 95199 8.8178197620436549e-04</internalNodes>
      <leafValues>
        -6.8322628736495972e-01 1.6800032556056976e-01</leafValues></_>
    <_>
      <internalNodes>
        0 -1 89072 1.7358055338263512e-03</internalNodes>
      <leafValues>
        -4.0359202027320862e-01 2.3704685270786285e-01</leafValues></_>
    <_>
      <internalNodes>
        0 -1 97396 -1.3277257494337391e-05</internalNodes>
      <leafValues>
        2.0875360071659088e-01 -4.5481425523757935e-01</leafValues></_>
    <_>
      <internalNodes>
        0 -1 56471 -1.8685560673475266e-02</internalNodes>
      <leafValues>
        -7.8845989704132080e-01 1.0422302782535553e-01</leafValues></_>
    <_>
      <internalNodes>
        0 -1 138271 2.8352831577649340e-05</internalNodes>
      <leafValues>
        -3.7005770206451416e-01 2.2232171893119812e-01</leafValues></_>
    <_>
      <internalNodes>
        0 -1 97454 -2.0079221576452255e-03</internalNodes>
      <leafValues>
        -4.6957939863204956e-01 1.6790783405303955e-01</leafValues></_>
    <_>
      <internalNodes>
        0 -1 120224 -5.7058758102357388e-04</internalNodes>
      <leafValues>
        2.3253904283046722e-01 -3.6552882194519043e-01</leafValues></_>
    <_>
      <internalNodes>
        0 -1 96935 -9.9072465673089027e-03</internalNodes>
      <leafValues>
        -8.2101225852966309e-01 9.9806942045688629e-02</leafValues></_>
    <_>
      <internalNodes>
        0 -1 137454 -5.0375447608530521e-04</internalNodes>
      <leafValues>
        2.3266178369522095e-01 -3.4180235862731934e-01</leafValues></_>
    <_>
      <internalNodes>
        0 -1 114222 -4.7998530790209770e-03</internalNodes>
      <leafValues>
        3.3632898330688477e-01 -2.4062019586563110e-01</leafValues></_>
    <_>
      <internalNodes>
        0 -1 97743 -5.4693059064447880e-03</internalNodes>
      <leafValues>
        -5.9894609451293945e-01 1.5107387304306030e-01</leafValues></_>
    <_>
      <internalNodes>
        0 -1 138462 -6.4132400439120829e-05</internalNodes>
      <leafValues>
        1.8321779370307922e-01 -4.1242435574531555e-01</leafValues></_>
    <_>
      <internalNodes>
        0 -1 136217 1.2712753377854824e-03</internalNodes>
      <leafValues>
        -3.7275040149688721e-01 1.8774554133415222e-01</leafValues></_>
    <_>
      <internalNodes>
        0 -1 103766 -1.0538859292864799e-02</internalNodes>
      <leafValues>
        -7.9006260633468628e-01 9.1140761971473694e-02</leafValues></_>
    <_>
      <internalNodes>
        0 -1 120591 -1.5619274228811264e-02</internalNodes>
      <leafValues>
        -6.1519420146942139e-01 1.0697337985038757e-01</leafValues></_>
    <_>
      <internalNodes>
        0 -1 46334 1.2361798435449600e-03</internalNodes>
      <leafValues>
        -4.9580794572830200e-01 1.3251897692680359e-01</leafValues></_>
    <_>
      <internalNodes>
        0 -1 9647 4.9964170902967453e-03</internalNodes>
      <leafValues>
        1.2255737185478210e-01 -5.4861068725585938e-01</leafValues></_>
    <_>
      <internalNodes>
        0 -1 138597 -7.9060848802328110e-03</internalNodes>
      <leafValues>
        -8.2431042194366455e-01 7.0204026997089386e-02</leafValues></_>
    <_>
      <internalNodes>
        0 -1 57911 -6.1572091653943062e-03</internalNodes>
      <leafValues>
        -7.4488884210586548e-01 7.1644887328147888e-02</leafValues></_>
    <_>
      <internalNodes>
        0 -1 75775 -1.6743890009820461e-03</internalNodes>
      <leafValues>
        2.3172280192375183e-01 -3.0282610654830933e-01</leafValues></_></weakClassifiers></stage4>
</opencv_storage>
